0.18085100118695632
0.015360005178319508
0.19903745535225972
0.188096869458077
-0.15552958208935305
0.1056612328804937
0.013644187050891543
-0.45382952991013803
-0.4635983354846638
-0.31635791430311977
-0.4664112904728869
-0.2434839377705596
0.17730552157843413
0.16207064238859623
-0.39442439429721887
-0.12003413637349522
-0.24940581473865867
0.14114717486631267
0.22993751453574612
-0.17291746940376823
0.12197059039316041
-0.1230123250007494
0.08401644817261725
0.18415795782473318
-0.30666698951260185
-0.04389284140202279
-0.007078986707318047
-0.28647183389076947
-0.49655636176043516
-0.33583096942402213
0.03187870528933112
0.08884458137961546
-0.0034069219640594506
-0.15875949253388696
0.09929925639188511
-0.06136593956264763
-0.017547796250369008
-0.25537467900257405
0.2701227796196927
0.29906051831981556
0.278109650800548
0.22621370225431187
0.3592578799712498
-0.269517518746059
0.026646869669123635
0.2205702332529835
0.24882456464984076
0.11058089200839796
-0.00011746574700374768
0.028632191060474738
-0.11086147131075957
-0.21176704694220153
-0.08337977597089524
0.22666519452661021
-0.08031758896244617
-0.009867374217391145
-0.07459294362378133
0.1293186519624516
0.0951469007698025
-0.068757076197895
-0.1453736364991194
-0.18537008376302852
0.0444497286292434
0.0942052676235596
-0.04298902463593823
0.11713615540705341
-0.06360969377196846
-0.20715055075131303
-0.18188433496029857
-0.2821433024259936
-0.08301115126083858
-0.31121978767193414
0.3991295598781015
-0.15980937884034105
0.07359627848326711
-0.24513959073732325
-0.0982743235560323
-0.21856666659182855
0.06399181095615222
0.12694119099539158
-0.12295141243797628
0.01860651022038265
0.1839372833824562
0.03718712588045281
0.050549720032450535
-0.18498519419277334
0.0686608651294755
-0.07402837159660791
0.10884935234334861
0.18517683467080917
0.32125764743784974
0.4483201478318246
0.025184828624200406
0.16652731432854478
-0.1283434406159973
-0.21524617434827362
-0.019128120364178408
0.11457112916401838
0.048752742425702905
0.10681839626668549
-0.3279846354350028
-0.4142788594466512
0.0999556661424024
-0.10363709715353261
-0.01940843498040301
0.38409983444869367
0.05560001362250097
-0.19410784517639948
-0.16339307650130389
0.16433838060585734
0.13593921776031298
0.09533907116787513
0.38094366820394365
0.24530139676877485
0.08069494593783647
-0.18587249211144002
-0.13474435488146996
-0.06515820546901835
-0.18678400364648592
0.22317228430934138
0.19108769630638703
-0.24948411488998296
-0.009017177269392551
-0.21538748841558492
0.0256415875589055
0.23057782017036166
0.07003261550399287
0.39573692550134076
0.33250821798108987
0.4194401217721674
-0.07047622832335038
0.30868054224438857
-0.21480439688856987
0.10194677065828961
0.18824795059713842
-0.12400595909390175
-0.09861426456320427
-0.38107437329876614
0.1328638507366359
0.03220505275326213
-0.09871704386824379
0.12147365067566321
-0.38195236645523867
-0.3021328833158344
0.33699349559815084
0.2074737798127125
0.46515853400045915
0.5507251983800202
0.2593541811320072
0.4991610507640789
0.011975869208115969
0.24100785668224972
0.23609166871744564
-0.15233316044399933
0.1903533423664128
-0.11510102724626695
-0.412488922189689
-0.34516321105313497
-0.33983091512667496
-0.09974984022158023
-0.026648668987942076
-0.2258322648334946
-0.0017480117606131218
-0.050043032936309184
-0.03641819574539143
0.3858415703336314
0.22476591433217302
0.3540714439434439
0.3281777476520041
0.5212572739989807
0.01750804958496216
-0.026773447108375287
0.25630012711277467
0.0018536420164674827
0.14149129198748026
-0.05945748462124703
0.09818970258325033
-0.35177791895388955
-0.414732723084448
-0.19993123885187952
-0.09769533554880619
0.18007900014305991
-0.17851161758924528
-0.07621551409140581
0.14441707012382668
0.2884524836194313
-0.032328401693824504
0.2035391660615508
0.13431154921148053
0.37856074204313306
-0.2270679696199521
-0.19123804102212036
-0.1451955226426205
-0.2088338921382599
-0.1262921956542615
0.05162560437829519
-0.2057065981295484
-0.03315336151528253
-0.17422133180810756
-0.1859673060271601
-0.2852140689554732
0.020909354804923314
0.06327988001420637
-0.0004317289258741752
-0.15164858818015461
-0.08664829187405926
0.4021253891562476
0.07722671908740963
0.11302600867046117
0.4710329279375671
0.013558048200929401
0.19219079133672223
0.18608186948758212
-0.010798961818622249
-0.08350571813650345
0.18950108622246356
-0.04617689301514308
0.07777750075840964
-0.15836952365801943
-0.15085484000195754
-0.2510046788033157
-0.10485557138710475
-0.09599126294933497
-0.3022926576126207
0.040068656763034616
0.19947422482761584
-0.017711992762390827
0.29518022337077976
0.3383157308291964
0.0539150430548897
0.4205175736116499
0.06615914885543714
-0.02679136968935561
0.09663962503861265
-0.21592208275496805
-0.3889840997336168
-0.036427802763886546
-0.1792810122962991
0.020464542186169887
-0.17567693883788676
-0.09550627917934504
0.09560942706110245
-0.44938494947521346
-0.4659244719222291
-0.2871042079718732
0.17357532715897805
0.37257826173730624
-0.006351866854565125
-0.06407879898603369
0.35764405497418184
-0.13061655205544392
0.04369348598727257
0.2116808314761591
-0.016223685959762396
-0.006259917383951291
0.19897030622578896
-0.3578527371815208
-0.14022167464252913
-0.23453470552368083
-0.32998037546783665
0.16959375298929816
-0.11160297004699851
0.009288618453391656
0.05515098235200094
-0.14232049184745213
-0.2978334089816346
0.09781426075561242
0.15651163175172716
0.35243136909466133
-0.1870412882848211
0.4442852403680607
0.012643356298258634
-0.31329478566152946
0.06008038302460206
0.007300785044707964
-0.2273267820571597
-0.30340086017372847
-0.3734715181671442
-0.12023578235860904
0.08482768138538987
-0.21908477421416328
-0.3713960130142969
0.03369927525398639
0.11605454066446236
0.11219103405363309
0.05314402242170993
0.38566578104301186
-0.04442830641154488
0.04431716110374667
0.2794347868155441
-0.02179594400876228
0.12172416859936344
0.05533378953080528
0.3704454104251145
0.18699342172661373
-0.19883440029839625
-0.01384366897279235
0.013187917946250155
0.016112511138883234
0.03270959082723235
-0.149076758566807
-0.18038037839391247
-0.2747722156282573
-0.17273972258688114
-0.05038480154037289
-0.3935155442755094
-0.43343434403565373
0.15953430283455552
0.24635345958564409
-0.2936654844151838
-0.12520285594470495
0.3748651217237481
0.32068294562806254
-0.07789992497661549
0.11265427263877034
0.08403601166371097
0.32395087580432624
-0.12759859853449962
0.08796418710545448
-0.17453047196399582
0.17398913546432204
-0.16414750617477755
0.37643867203449133
0.48647987985103913
-0.18841851322526912
0.006639385081380761
-0.14218438408097414
-0.33679437523717615
0.09235371056561767
0.13337588960407723
-0.2978933032005876
0.18429017342189027
0.26598013089068845
0.052651465751732934
-0.033662102795589066
0.5432454293530907
0.367686939407206
-0.11097720410944892
-0.27613905392083415
-0.1829936605378044
0.0921834874612528
-0.024810606647379885
0.40051455984974926
-0.0784635605734125
-0.0026609939081601586
0.06759141059014356
-0.02013447031616264
0.0211520570278729
-0.06875576356675595
-0.4017661146778022
-0.2448218665080053
-0.39637121380241025
0.1860846571875652
-0.38704682879624774
-0.22056519701759067
-0.030318962448769554
-0.020362306633807475
0.0905619103293894
-0.16662967249538754
-0.1606272627270154
-0.11590467031467225
0.1111627862804819
-0.08661768931945452
-0.1906214168941802
-0.2254677278980551
0.21803328720313192
-0.30721829622383745
-0.20139908906798065
-0.20256234476572477
-0.08378423181956757
0.09323228064422373
-0.01339080112765012
-0.33215844779118253
-0.3610857726116855
0.08942066681360408
-0.08871590452585507
0.12253098955410174
0.5769293742356136
0.21742937681164973
0.20869625282725937
-0.28703906217630637
-0.10398353878302036
-0.16188956929044215
0.37077218820812685
-0.2417083412276296
0.20652937498897467
-0.36840197833261445
-0.127261030066642
0.04836049358653735
-0.19619662817386124
-0.25408039521708337
-0.03240095082679745
0.07422593750934092
0.015538825958716473
-0.004293499119734451
0.01573343699176044
0.16305538432470904
-0.022460280040055625
0.16513924791426898
0.01855540209978282
